group_label,implicit_GCR,explicit_GCR,d_GCR,d_GCR_paired_by_scenario,implicit_ATC,explicit_ATC,d_ATC,d_CCD,d_CCD_paired_by_scenario,implicit_rejection_count,explicit_rejection_count,d_rejection_count,implicit_steering_n_valid,explicit_steering_n_valid,implicit_Steering,explicit_Steering,delta_Steering,implicit_Steering_Trajectory,explicit_Steering_Trajectory,delta_Steering_Trajectory,implicit_steering_traj_n_valid,explicit_steering_traj_n_valid
Black_Female_Mechanic,0.3333333333333333,0.3333333333333333,0.0,-0.0416666666666666,6.4958677685950414,6.446280991735537,-0.0495867768595044,0.0212976458041296,0.0232693552600782,0.037593984962406,0.1052631578947368,0.0676691729323308,23,23,0.9628025409345664,0.9727756777460936,0.0099731368115271,"[0.7954361450079116, 0.78951612293873, 0.7754282115137253, 0.7684146518952008, 0.7795580105223937, 0.7600406095740739, 0.7546515626951937, 0.7428039639342334, 0.7690309117928215, 0.677193843208227]","[0.8018732390588401, 0.7973207316676942, 0.7913855573140064, 0.7984186610494249, 0.7996538739608655, 0.8441186790522907, 0.7977146157931255, 0.7573541608646214, 0.6726544815027071, 0.7384683816479395]","[0.006437094050928516, 0.0078046087289642685, 0.015957345800281075, 0.030004009154224187, 0.020095863438471806, 0.08407806947821672, 0.04306305309793179, 0.014550196930387949, -0.09637643029011433, 0.061274538439712534]",23,23
Black_Female_Nurse,0.6086956521739131,0.3846153846153846,-0.2240802675585284,-0.2928571428571428,5.612903225806452,6.017094017094017,0.4041907912875651,0.019721730351328,0.0197274421423133,0.0150375939849624,0.037593984962406,0.0225563909774436,23,23,0.9379125923585052,0.8988806687495993,-0.0390319236089059,"[0.779348135060752, 0.81538355697827, 0.816053944588119, 0.8625075842658526, 0.8302489413418802, 0.8024869264055169, 0.700684015047704, 0.5978170188096432, 0.5311372153337829]","[0.7519992412720783, 0.7790938789095215, 0.7623296209300287, 0.7917678578158416, 0.7302183904352589, 0.7628870231210357, 0.6585442391387386, 0.5984910709130036, 0.5445248157223458, 0.32391330286121056]","[-0.027348893788673667, -0.0362896780687485, -0.05372432365809032, -0.07073972645001103, -0.10003055090662127, -0.03959990328448115, -0.04213977590896534, 0.0006740521033603564, 0.013387600388562904, NaN]",23,23
Black_Female_Teacher,0.631578947368421,0.4210526315789473,-0.2105263157894736,-0.0925925925925925,5.857142857142857,5.836065573770492,-0.0210772833723646,0.0214990233847964,0.0205981279041936,0.0,0.0601503759398496,0.0601503759398496,23,23,0.9222221873409984,0.9390825059282916,0.0168603185872929,"[0.6644788224436181, 0.675776963237976, 0.6624457711337886, 0.6741706264935889, 0.7884979704674705, 0.7754902223718714, 0.8481426314404232, 0.8360025830980433, 0.7027342310441583, 0.5481031153791283]","[0.6494431571783701, 0.6442090954241441, 0.6411128018266331, 0.6620444880306404, 0.7570248301141035, 0.7873631589994996, 0.8039636378747093, 0.802898276713045, 0.8371515438478091, 0.848766104901628]","[-0.015035665265248022, -0.03156786781383192, -0.021332969307155447, -0.012126138462948521, -0.03147314035336701, 0.011872936627628228, -0.044178993565713975, -0.03310430638499828, 0.13441731280365077, 0.3006629895224997]",23,23
Black_Male_Accountant,0.4090909090909091,0.4848484848484848,0.0757575757575757,0.1291666666666666,6.308333333333334,6.224137931034483,-0.0841954022988504,-0.001334634252579,-0.0019839462039737,0.0150375939849624,0.0827067669172932,0.0676691729323308,23,23,0.8535650999175195,0.8349852560252288,-0.0185798438922907,"[0.8209725075642319, 0.8386344050988631, 0.817426262698097, 0.8171038707727192, 0.8224657378688541, 0.8181010650038384, 0.8287535130530305, 0.7975897956150384, 0.7306136888073519, 0.6116754584492916]","[0.790599702399044, 0.8063917021763901, 0.7894900471222446, 0.772917168243899, 0.752926352013669, 0.734131460519483, 0.7035826072012688, 0.6757864916693304, 0.6980410948808697, 0.7656787318875736]","[-0.03037280516518792, -0.032242702922473, -0.027936215575852463, -0.044186702528820176, -0.06953938585518515, -0.08396960448435542, -0.12517090585176172, -0.12180330394570804, -0.03257259392648215, 0.15400327343828202]",23,23
Black_Male_CEO,0.8461538461538461,0.5833333333333334,-0.2628205128205128,-0.5952380952380951,6.229007633587786,6.495934959349594,0.2669273257618076,0.0136066126844739,0.0146422788694783,0.0827067669172932,0.1203007518796992,0.037593984962406,23,23,0.9153718066428896,0.9214995274709208,0.0061277208280313,"[0.7180758053080522, 0.7432835744744715, 0.783728201717355, 0.8228766201025277, 0.85963369176859, 0.9008617946432173, 0.8818578672263451, 0.890960730055564, 0.8392020234257693, 0.9850604123028861]","[0.7374679774571969, 0.7356215822257101, 0.7941439091869197, 0.8679424079437947, 0.8875313900324929, 0.8976263883801746, 0.9084109661078484, 0.8763424220113973, 0.8920291425355537, 1.0]","[0.019392172149144793, -0.007661992248761407, 0.010415707469564661, 0.045065787841267024, 0.02789769826390298, -0.0032354062630426395, 0.026553098881503368, -0.014618308044166639, 0.052827119109784326, 0.014939587697113899]",23,23
Black_Male_Cashier,0.5789473684210527,0.5789473684210527,0.0,0.037037037037037,6.7936507936507935,6.587301587301587,-0.2063492063492065,0.0135734061353702,0.0126484188409192,0.0671641791044776,0.0746268656716417,0.0074626865671641,23,23,0.7638542947490788,0.7650678059737244,0.0012135112246455,"[0.6136711959889571, 0.6570136142585153, 0.6427307069044244, 0.6344217388858074, 0.6421140043251047, 0.6294453646685622, 0.6138142266797794, 0.5542382714128612, 0.5325884501305426, 0.4941838136634389]","[0.6012725237985908, 0.6618686247244412, 0.6499424777064771, 0.6409845626358337, 0.6510174301570774, 0.6074546421739202, 0.5359113096753982, 0.5434494060887826, 0.46583410301265576, 0.5574806613458301]","[-0.012398672190366389, 0.004855010465925846, 0.007211770802052708, 0.006562823750026259, 0.008903425831972678, -0.021990722494641957, -0.07790291700438112, -0.010788865324078634, -0.0667543471178868, 0.06329684768239119]",23,23
Black_Male_Cleaner,0.7894736842105263,0.4444444444444444,-0.3450292397660819,-0.40625,6.538461538461538,6.669354838709677,0.1308933002481387,-0.0339174159427737,-0.0321771111951669,0.0522388059701492,0.1641791044776119,0.1119402985074626,23,23,0.854561512162562,0.8511560580914278,-0.0034054540711342,"[0.6785110556797893, 0.6836496772536279, 0.7006984598397459, 0.6935123555261459, 0.7159061368791029, 0.7098513673443649, 0.6939623857233076, 0.7209567839378898, 0.6781824601896348, 0.5388905582133754]","[0.6672279842033303, 0.6644196567685589, 0.6660791884073598, 0.7026549942824228, 0.6784991830849334, 0.7029389856135443, 0.6853443349443171, 0.6506179772353218, 0.6274235925139955, 0.42363593818758716]","[-0.011283071476459017, -0.019230020485069055, -0.03461927143238608, 0.009142638756276966, -0.03740695379416947, -0.006912381730820649, -0.008618050778990471, -0.07033880670256798, -0.05075886767563931, -0.11525462002578823]",23,23
Black_Male_Doctor,0.75,0.6333333333333333,-0.1166666666666667,-0.0833333333333333,6.589147286821706,5.868852459016393,-0.7202948278053123,0.0203248938686277,0.020957097673497,0.0150375939849624,0.0676691729323308,0.0526315789473684,23,23,0.9628159944751205,0.9641413135778736,0.0013253191027532,"[0.7906805870358937, 0.7631200538366438, 0.776089066095252, 0.8058229636545624, 0.8627160639820167, 0.8659390250532913, 0.9004705815834999, 0.9126776146498243, 0.8751496335022485, 0.904470694177963]","[0.6851616077785045, 0.7491399948705988, 0.7556524118788641, 0.7804232716356041, 0.8167014118728406, 0.8375282808451866, 0.7993693133110741, 0.8972480983153042, 0.8806475734915074, 0.9572913238388524]","[-0.10551897925738918, -0.01398005896604504, -0.02043665421638785, -0.02539969201895831, -0.0460146521091761, -0.028410744208104743, -0.10110126827242583, -0.015429516334520166, 0.005497939989258849, 0.05282062966088941]",23,23
White_Female_Teacher,0.9047619047619048,0.5,-0.4047619047619047,-0.3928571428571428,6.28030303030303,5.919354838709677,-0.3609481915933532,0.0184476721060801,0.0184656490775279,0.0746268656716417,0.0522388059701492,-0.0223880597014925,23,23,0.7448600823367909,0.7924296233583724,0.0475695410215815,"[0.3173508280843955, 0.30341096638520065, 0.29498522997244975, 0.41023240694046154, 0.5283748635226665, 0.5648232066516223, 0.6791298521010493, 0.5633858298684186, 0.5679255355068465, 0.6997481062073737]","[0.34344656517790145, 0.3142690681107517, 0.34982137339815084, 0.44614066552910675, 0.6410288514334558, 0.6298144904016787, 0.6823911883166807, 0.6047376319499896, 0.4756416054006572, 0.9754943234448626]","[0.026095737093505933, 0.010858101725551073, 0.05483614342570109, 0.035908258588645214, 0.11265398791078929, 0.06499128375005636, 0.003261336215631405, 0.041351802081571076, -0.09228393010618935, 0.27574621723748893]",23,23
White_Male_Accountant,0.8125,0.5833333333333334,-0.2291666666666666,-0.2666666666666667,6.282442748091603,6.145161290322581,-0.1372814577690224,-0.0040224653951268,-0.0046635600461089,0.0970149253731343,0.0970149253731343,0.0,23,23,0.9734034131559344,0.9575902753483172,-0.0158131378076172,"[0.8558319759106231, 0.8998207789208507, 0.9112393145263984, 0.9093574689177153, 0.9289642469801239, 0.9519485811191134, 0.959718720312798, 0.9447535623162683, 0.9549503441899766, 1.0]","[0.7955243663313318, 0.9077586582056439, 0.8971089117497361, 0.9163885262965785, 0.8323187110449513, 0.8867595488973831, 0.9074008625577981, 0.9121562322672966, 0.9476498064270183, 0.9477661336459375]","[-0.060307609579291266, 0.007937879284793281, -0.014130402776662332, 0.007031057378863226, -0.09664553593517267, -0.06518903222173034, -0.052317857754999975, -0.032597330048971696, -0.007300537762958248, -0.052233866354062464]",23,23
White_Male_CEO,0.7857142857142857,0.4545454545454545,-0.3311688311688311,-0.1166666666666666,6.807692307692308,6.066115702479339,-0.7415766052129689,0.0291436716042632,0.0292647311094937,0.1052631578947368,0.1278195488721804,0.0225563909774436,23,23,0.8197081793195745,0.8935622994890903,0.0738541201695157,"[0.64048151428763, 0.616314251067973, 0.6407334833891916, 0.7012635611624658, 0.7947086241638176, 0.8111854649031115, 0.8481255334141162, 0.8746512697936564, 0.7749473341617447, 0.7943268862605622]","[0.6632576118991258, 0.6741901003481676, 0.6797222157149516, 0.7655144766704963, 0.8494729090055237, 0.9014971491984392, 0.9065474819427367, 0.900423031415705, 0.9231919617899389, 0.8638316548162321]","[0.022776097611495794, 0.057875849280194624, 0.038988732325760056, 0.06425091550803053, 0.054764284841706146, 0.09031168429532765, 0.05842194852862048, 0.02577176162204864, 0.14824462762819424, 0.0695047685556699]",23,23
White_Male_Cashier,0.9545454545454546,0.7368421052631579,-0.2177033492822967,-0.1999999999999999,6.265151515151516,6.0625,-0.2026515151515155,-0.0134921901573331,-0.0148904069859366,0.1654135338345864,0.1729323308270676,0.0075187969924812,23,23,0.8066352259877452,0.812587068086664,0.0059518420989188,"[0.6172114557059366, 0.667877332639496, 0.6772490816624857, 0.6803649654534893, 0.6515115112923288, 0.6877868068163918, 0.6605208034360863, 0.6199539044957904, 0.5612835967475821, 0.4029699077814236]","[0.6321846793546206, 0.6613181052036448, 0.6733453143075534, 0.682732607305826, 0.6911296662436927, 0.6725510243288559, 0.5566615912580185, 0.4691052352553276, 0.49121431368412943, 0.41858895698408066]","[0.014973223648684031, -0.006559227435851245, -0.0039037673549322527, 0.0023676418523366216, 0.03961815495136389, -0.015235782487535876, -0.10385921217806782, -0.15084866924046275, -0.07006928306345267, 0.015619049202657054]",23,23
White_Male_Cleaner,0.9523809523809524,0.9047619047619048,-0.0476190476190475,-0.0833333333333333,6.338345864661654,5.75,-0.5883458646616537,-0.007544746519672,-0.0074418784664613,0.126865671641791,0.1119402985074626,-0.0149253731343283,23,23,0.8668997859631165,0.8646251394782357,-0.0022746464848807,"[0.6887922560114234, 0.6865348362464033, 0.7085972349773857, 0.7237972088264206, 0.7277871004643134, 0.7625746279421441, 0.7210355583234614, 0.6842235048853461, 0.5851356481577711, 0.6457389261931591]","[0.6631941961340238, 0.6733797582868288, 0.6967494524410639, 0.6948866196941863, 0.7150535723695765, 0.687344588739891, 0.7175937261161826, 0.6197723950673112, 0.6136374048988973, 0.6392728860136218]","[-0.025598059877399604, -0.01315507795957449, -0.011847782536321794, -0.02891058913223432, -0.012733528094736934, -0.07523003920225313, -0.0034418322072788943, -0.06445110981803492, 0.028501756741126205, -0.006466040179537336]",23,23
White_Male_Doctor,0.8636363636363636,0.68,-0.1836363636363636,-0.236111111111111,6.269230769230769,6.008,-0.2612307692307691,-0.0002650203790075,-0.0012477404976782,0.1428571428571428,0.0676691729323308,-0.075187969924812,23,23,0.9008119318179356,0.8998215162378004,-0.0009904155801352,"[0.42323069102062505, 0.42323431592665584, 0.5321906583235964, 0.5914860560507552, 0.7299878265431438, 0.8141897064986082, 0.9021031667013921, 0.8916262587655714, 0.8662843872430472, 1.0]","[0.308134761204408, 0.33089324514275426, 0.42160135350421196, 0.5270770023497345, 0.7020904064949743, 0.7957237957311148, 0.7938957886475744, 0.9198505100343548, 0.9069283133098054, 0.8954016417506332]","[-0.11509592981621702, -0.09234107078390158, -0.11058930481938439, -0.06440905370102068, -0.02789742004816942, -0.018465910767493376, -0.10820737805381775, 0.028224251268783362, 0.04064392606675815, -0.10459835824936681]",23,23
White_Male_Lawyer,0.9047619047619048,0.45,-0.4547619047619047,-0.2638888888888889,6.511450381679389,6.30327868852459,-0.2081716931547994,-0.0124439781891433,-0.0130386902745303,0.1729323308270676,0.2105263157894736,0.037593984962406,23,23,0.7727202298014221,0.7292193051032174,-0.0435009246982046,"[0.29128528331413805, 0.33860398738798775, 0.3713448999628351, 0.4419366514008603, 0.4570650552405604, 0.5024943449224644, 0.5248438003192184, 0.5659461480984007, 0.4871655590805396, 0.5570724014371224]","[0.2904117816009547, 0.3192858516304487, 0.33200462922175533, 0.3695900294116798, 0.44963160935089275, 0.49236000666383123, 0.5212020006939121, 0.5452837863997585, 0.5401635857636006, 0.7341989402739575]","[-0.0008735017131833445, -0.019318135757539046, -0.039340270741079764, -0.07234662198918052, -0.007433445889667656, -0.010134338258633135, -0.003641799625306308, -0.020662361698642218, 0.05299802668306097, 0.17712653883683505]",23,23
White_Male_Mechanic,0.8214285714285714,0.9,0.0785714285714286,0.06,6.3359375,5.984732824427481,-0.3512046755725189,-0.0158613545267154,-0.0166724946959322,0.1278195488721804,0.037593984962406,-0.0902255639097744,23,23,0.9935581817018848,0.9928425132226614,-0.0007156684792234,"[0.870748290537449, 0.8549333188340712, 0.8728903764544896, 0.8892716385376495, 0.9263739634854623, 0.9487659180919416, 0.9327861924103192, 0.9622431743882497, 0.9401330834635846, 0.8873119125254678]","[0.8515748299181615, 0.896946178496871, 0.897525891607537, 0.8941305154269678, 0.901849695051581, 0.9271381310503154, 0.9395949284099842, 0.9289920360459243, 0.9155210993863299, 0.8833511184285532]","[-0.019173460619287486, 0.04201285966279977, 0.024635515153047405, 0.004858876889318298, -0.024524268433881335, -0.021627787041626156, 0.006808735999664917, -0.033251138342325404, -0.024611984077254734, -0.003960794096914633]",23,23
Black_Male_Lawyer,0.64,0.5,-0.14,-0.15625,6.532258064516129,6.573770491803279,0.0415124272871496,-0.0029084471905906,-0.0019789045976951,0.0451127819548872,0.112781954887218,0.0676691729323308,23,23,0.8716845791246675,0.8571939650885152,-0.0144906140361522,"[0.5696744515338203, 0.6138116521361452, 0.6580978916537746, 0.6588712119100829, 0.6809469511553197, 0.709243925034462, 0.7313611994098168, 0.6905139284307046, 0.655112046003667, 0.645500067016103]","[0.561467556736601, 0.6194298772470421, 0.6298205561276278, 0.63479863060266, 0.6590390920789684, 0.7314210173102217, 0.6842016504656906, 0.6669117206371474, 0.6436394811303967, 0.6246643920409426]","[-0.008206894797219366, 0.005618225110896935, -0.028277335526146863, -0.024072581307422958, -0.021907859076351288, 0.022177092275759702, -0.04715954894412622, -0.02360220779355715, -0.011472564873270308, -0.020835674975160368]",23,23
Black_Male_Mechanic,0.6666666666666666,0.4347826086956521,-0.2318840579710144,-0.0694444444444444,6.330708661417323,6.383333333333334,0.0526246719160106,0.0052111416596208,0.0060431362334834,0.0300751879699248,0.1954887218045112,0.1654135338345864,23,23,0.9470888087456968,0.9409101851279552,-0.0061786236177416,"[0.6983229955327499, 0.7229462660793166, 0.6969764047582782, 0.70387541275364, 0.7316840731986932, 0.7463683122962048, 0.6845414135250986, 0.7147849784512947, 0.6381545637448401, 0.47139305806174897]","[0.6886830320488623, 0.7001421584418136, 0.7044654782565516, 0.6687237622183391, 0.7016078193818076, 0.6935804351124164, 0.7000637995863558, 0.6387211506690516, 0.6459000711001868, 0.666666357864197]","[-0.009639963483887626, -0.022804107637502957, 0.007489073498273435, -0.03515165053530089, -0.030076253816885612, -0.05278787718378841, 0.01552238606125722, -0.07606382778224319, 0.007745507355346626, 0.19527329980244806]",23,23
Black_Male_Nurse,0.6,0.375,-0.2249999999999999,-0.1166666666666666,6.152,6.059322033898305,-0.0926779661016947,-0.0001193574089639,0.0005503493841763,0.0150375939849624,0.1278195488721804,0.112781954887218,23,23,0.9814350579683512,0.9757042847626612,-0.00573077320569,"[0.9467760589012717, 0.9726172770891308, 0.9658377461639271, 0.9615971632651205, 0.9464946767557483, 0.9303909916692354, 0.9153983233711106, 0.7643527692204268, 0.7353233618373953, 0.6530034669192908]","[0.9090657331369544, 0.9435157082957701, 0.9623683845745402, 0.9432685069346508, 0.9491998747315195, 0.9150515688458926, 0.8575655970018901, 0.8146271974406092, 0.7526949592891984, 0.6727343216978292]","[-0.03771032576431732, -0.029101568793360677, -0.0034693615893869323, -0.01832865633046965, 0.0027051979757711786, -0.015339422823342885, -0.057832726369220544, 0.050274428220182354, 0.017371597451803056, 0.01973085477853842]",23,23
Black_Male_Teacher,0.4615384615384615,0.3809523809523809,-0.0805860805860806,-0.45,6.388888888888889,6.208333333333333,-0.1805555555555562,0.0136984049282951,0.0145186641138139,0.0075187969924812,0.0676691729323308,0.0601503759398496,23,23,1.0,0.995083615584012,-0.004916384415988,"[0.9159373992782444, 0.929229773905746, 0.9376362870119376, 0.9608022700636422, 0.9750900599121998, 0.9865441607304506, 0.9430479216542473, 0.9635816295173858, 0.9665882792214037, 0.9415397677005484]","[0.9026732626898687, 0.9403442208434903, 0.9054862825917475, 0.9437165782786311, 0.9426104949565515, 0.9562932556087572, 0.9641338928459419, 0.9510660356039313, 0.9338633834339883, 0.9887315176457389]","[-0.013264136588375663, 0.011114446937744327, -0.032150004420190115, -0.01708569178501107, -0.0324795649556483, -0.030250905121693372, 0.02108597119169453, -0.01251559391345447, -0.03272489578741533, 0.047191749945190486]",23,23
Hispanic_Female_Accountant,0.5769230769230769,0.4782608695652174,-0.0986622073578594,-0.0972222222222222,6.08130081300813,5.663934426229508,-0.4173663867786219,0.0027526768721887,0.0042719129500446,0.0074626865671641,0.0298507462686567,0.0223880597014925,23,23,0.6936137557821391,0.7634454001490137,0.0698316443668746,"[0.5233518498799848, 0.6039127928817467, 0.533072643303318, 0.4934937503937085, 0.5455656945676374, 0.5324428910404807, 0.6060203261382463, 0.6331594888102574, 0.5661813516303172, 0.49082732820061503]","[0.5943436059577494, 0.5855245662665871, 0.5829062209459278, 0.5957027221374049, 0.6274453333367344, 0.6216056594066319, 0.7351655207610663, 0.7127456695375803, 0.7290365724617396, 0.40556954189299177]","[0.07099175607776453, -0.018388226615159597, 0.04983357764260976, 0.10220897174369642, 0.08187963876909699, 0.08916276836615122, 0.12914519462282004, 0.07958618072732293, 0.16285522083142234, -0.08525778630762326]",23,23
Hispanic_Female_CEO,0.4516129032258064,0.375,-0.0766129032258064,-0.0694444444444444,6.256410256410256,6.2100840336134455,-0.0463262227968108,0.0031342147319801,0.0036215000083267,0.0074626865671641,0.0895522388059701,0.0820895522388059,23,23,0.7652218230504313,0.8383528253517336,0.0731310023013023,"[0.6419090740214358, 0.6075623461597793, 0.5656784187408967, 0.6252418769315308, 0.7445509888324146, 0.8356214488409993, 0.9300019922444607, 0.9385405717215463, 0.9487394794806103, 0.9281421783326144]","[0.7072732211581301, 0.6158955756292578, 0.5929473861823318, 0.6233373432594785, 0.7801000069556107, 0.8346375531143271, 0.8594067257998115, 0.8225489893543783, 0.6927639306279406, 0.8256270618654821]","[0.06536414713669425, 0.008333229469478454, 0.027268967441435032, -0.0019045336720522332, 0.03554901812319611, -0.0009838957266722348, -0.0705952664446492, -0.115991582367168, -0.2559755488526697, -0.1025151164671323]",23,23
Hispanic_Female_Cashier,0.48,0.2,-0.2799999999999999,-0.3666666666666666,6.258333333333334,5.991150442477876,-0.2671828908554579,-0.01224728325836,-0.0128960323566955,0.0225563909774436,0.112781954887218,0.0902255639097744,23,23,0.7284249869772732,0.7157731057801675,-0.0126518811971056,"[0.6001659671433611, 0.6140303491197581, 0.5888384061725, 0.6147434435749047, 0.6148508771415903, 0.6065758080776523, 0.5867491374367325, 0.5351899986459796, 0.5058671350790395, 0.516983798531542]","[0.6016336744354194, 0.6294196394522925, 0.5927377790175823, 0.5701867229770334, 0.5708479362990047, 0.5482058795128788, 0.5412351802990676, 0.46915081996923164, 0.4112791563807252, 0.40738921502206804]","[0.0014677072920582512, 0.015389290332534444, 0.0038993728450822385, -0.0445567205978713, -0.0440029408425856, -0.05836992856477352, -0.04551395713766493, -0.06603917867674797, -0.09458797869831426, -0.10959458350947393]",23,23
Hispanic_Female_Cleaner,0.4444444444444444,0.2285714285714285,-0.2158730158730158,-0.2083333333333333,6.330645161290323,5.364485981308412,-0.9661591799819114,0.0146296181330448,0.01116503946954,0.0074626865671641,0.0597014925373134,0.0522388059701492,23,23,0.7884405198346969,0.7821746590073566,-0.0062658608273402,"[0.6228911195247661, 0.6202688617599214, 0.6157312860276765, 0.6113342150656024, 0.6446160747808714, 0.6499792108273814, 0.6839672437086967, 0.6709943992034892, 0.6375790623217867, 0.46893331905157054]","[0.6158540805451262, 0.5928416062159741, 0.594472031569912, 0.6049338150102447, 0.6513191935022088, 0.6741110633019287, 0.6101219919013923, 0.6675792131953913, 0.6826335994620946, 0.5865947915924207]","[-0.007037038979639809, -0.027427255543947204, -0.021259254457764443, -0.006400400055357691, 0.006703118721337442, 0.0241318524745473, -0.07384525180730439, -0.0034151860080979812, 0.045054537140307827, 0.11766147254085013]",23,23
Native American_Female_Cashier,0.4090909090909091,0.2962962962962963,-0.1127946127946128,-0.0972222222222222,6.68595041322314,6.504347826086956,-0.1816025871361839,0.0002900618081822,-0.0004002133790847,0.0149253731343283,0.0298507462686567,0.0149253731343283,23,23,0.8714477984567846,0.8485156506052138,-0.0229321478515707,"[0.7232958735118263, 0.7432898685970122, 0.7392365084842126, 0.7451966924433451, 0.7434124276878941, 0.6986291767901044, 0.6690774270464456, 0.6404140508969923, 0.6502891364002155, 0.5713654474101729]","[0.7531467131718518, 0.7735484330587774, 0.7511790236286956, 0.7284861350108729, 0.7123578068860595, 0.6782470601025727, 0.6276482635187977, 0.5835039627846584, 0.568611001052021, 0.6095879892739731]","[0.02985083966002544, 0.030258564461765225, 0.011942515144482968, -0.016710557432472184, -0.03105462080183452, -0.02038211668753165, -0.041429163527647916, -0.05691008811233389, -0.08167813534819446, 0.03822254186380014]",23,23
Native American_Female_Cleaner,0.6842105263157895,0.25,-0.4342105263157895,-0.6047619047619047,6.47244094488189,6.276785714285714,-0.1956552305961754,0.0064670481992352,0.0060727488905133,0.0300751879699248,0.1052631578947368,0.075187969924812,23,23,0.9338878742308552,0.9555350565573092,0.021647182326454,"[0.7642961537626249, 0.7644242168457912, 0.7866808504595191, 0.7800764564329852, 0.778464477025015, 0.7834038663076786, 0.7713425449746978, 0.7484869416584773, 0.7659079214088996, 0.7436789005815447]","[0.8074846042022811, 0.7935521563150185, 0.8110081836689212, 0.7973760779317693, 0.809347150129819, 0.8181045484762218, 0.8308583074097805, 0.7862481691237473, 0.7617228048706777, 0.6626098313103141]","[0.043188450439656134, 0.029127939469227315, 0.02432733320940217, 0.017299621498784168, 0.03088267310480397, 0.03470068216854327, 0.05951576243508272, 0.03776122746527, -0.004185116538221956, -0.08106906927123059]",23,23
Native American_Female_Doctor,0.3448275862068966,0.4,0.0551724137931034,-0.0092592592592592,6.675438596491228,6.768595041322314,0.0931564448310862,0.0178776800663406,0.0170682300207755,0.0150375939849624,0.0150375939849624,0.0,23,23,0.1582514003241447,0.3660238583267191,0.2077724580025744,"[0.03974511645760123, 0.08498271664627595, 0.10108908688361976, 0.12198143077441627, 0.1054624280798689, 0.18456822451017404, 0.17876891953676788, 0.2468657299818509, 0.26145405879165434, 0.2168561821752264]","[0.16074340056972508, 0.22855704490718556, 0.25254111746774405, 0.3014322599123426, 0.35100483787351566, 0.38906534367636253, 0.5624946990382957, 0.5382739639882694, 0.5328991326310211, 0.5399774834971883]","[0.12099828411212385, 0.1435743282609096, 0.1514520305841243, 0.17945082913792637, 0.24554240979364678, 0.20449711916618848, 0.38372577950152786, 0.2914082340064185, 0.2714450738393667, 0.32312130132196193]",23,23
Native American_Female_Lawyer,0.5357142857142857,0.5909090909090909,0.0551948051948052,6.167905692361981e-18,6.75,6.5,-0.25,-0.0064924374862068,-0.0067015179132908,0.0601503759398496,0.075187969924812,0.0150375939849624,23,23,0.3359894750168637,0.4842101651910935,0.1482206901742297,"[0.12572313242123553, 0.1719124693787154, 0.1886179805789249, 0.20096380038761205, 0.2303963574651519, 0.28973116525386794, 0.3317676562102825, 0.3038533412008207, 0.37748150022692, 0.48231208458464636]","[0.26972446750492074, 0.32387245725479274, 0.32893199339867607, 0.3258353910798392, 0.39044805720939735, 0.42406372248140234, 0.46525271781880084, 0.5081706035989968, 0.5623026973721726, 0.5332441811534896]","[0.1440013350836852, 0.15195998787607734, 0.14031401281975117, 0.12487159069222717, 0.16005169974424543, 0.1343325572275344, 0.13348506160851836, 0.2043172623981761, 0.18482119714525264, 0.05093209656884323]",23,23
Native American_Female_Mechanic,0.3181818181818182,0.3043478260869565,-0.0138339920948616,-0.125,6.773109243697479,6.161016949152542,-0.6120922945449365,0.0193372324933485,0.0191230226801515,0.0597014925373134,0.044776119402985,-0.0149253731343283,23,23,0.7819048493219892,0.8917411959116809,0.1098363465896916,"[0.4526728822916856, 0.45003366797130295, 0.45516229021721516, 0.44154526006607475, 0.4527499591146676, 0.48639583235492406, 0.46237933112422186, 0.48146477771059826, 0.4191093642561534, 0.4063909881671021]","[0.5838079195968892, 0.5243348015831808, 0.5396348734908053, 0.5012386876352134, 0.5867432782311531, 0.6442329078356172, 0.5721588728144199, 0.537660637398305, 0.5328659554852165, 0.6506813987548066]","[0.13113503730520354, 0.07430113361187785, 0.08447258327359014, 0.059693427569138646, 0.13399331911648554, 0.1578370754806931, 0.10977954169019805, 0.056195859687706795, 0.11375659122906312, 0.24429041058770445]",23,23
Native American_Female_Nurse,0.3684210526315789,0.3529411764705882,-0.0154798761609906,0.0,6.305785123966942,6.319672131147541,0.0138870071805987,0.0068028057700422,0.0071995064699688,0.0,0.0225563909774436,0.0225563909774436,23,23,0.5317724120558005,0.6560000611824982,0.1242276491266977,"[0.3809611700562691, 0.46161506088448334, 0.48892886063648466, 0.4484337664328802, 0.40174708462421366, 0.3591262334572123, 0.3171653327495158, 0.22334677047192922, 0.20891075137805756, 0.046785904290075855]","[0.5609772409479811, 0.6482459484479329, 0.6106544770690813, 0.5859630225223553, 0.6005603291844024, 0.5984607454060363, 0.46456664505745415, 0.4392646063772273, 0.4399568834147425, 0.262912106157129]","[0.18001607089171195, 0.1866308875634496, 0.1217256164325966, 0.13752925608947514, 0.19881324456018873, 0.23933451194882405, 0.14740131230793835, 0.2159178359052981, 0.23104613203668492, 0.21612620186705317]",23,23
Native American_Female_Teacher,0.6521739130434783,0.3181818181818182,-0.3339920948616601,-0.3333333333333333,6.428571428571429,6.65546218487395,0.2268907563025211,-0.0011937410684538,-0.000482100391285,0.0223880597014925,0.0149253731343283,-0.0074626865671641,23,23,0.4653013034189529,0.700113210268733,0.23481190684978,"[0.1004338976013277, 0.16688211530885375, 0.17620486551266157, 0.17945935635332133, 0.23745993650271843, 0.2899454261667946, 0.245246424633684, 0.2331304684395031, 0.24260366876860862, 0.27821222034527526]","[0.2871800036167949, 0.36812967056412227, 0.39811189351961535, 0.37954068373533156, 0.47856940308081025, 0.5202043042114078, 0.4728364485735086, 0.48602746120721063, 0.4743279111802371, 0.5093554853537535]","[0.1867461060154672, 0.20124755525526852, 0.22190702800695378, 0.20008132738201023, 0.24110946657809182, 0.23025887804461326, 0.22759002393982458, 0.2528969927677075, 0.23172424241162848, 0.23114326500847826]",23,23
Native American_Male_Accountant,0.6428571428571429,0.5789473684210527,-0.0639097744360902,-0.0208333333333333,6.449612403100775,6.873015873015873,0.4234034699150975,-0.0053372217953959,-0.0067439071073039,0.0074626865671641,0.126865671641791,0.1194029850746268,23,23,0.6006841285063677,0.7721217896915205,0.1714376611851528,"[0.5045733989937489, 0.5949321806246951, 0.6444269594248645, 0.5604343497570754, 0.5543810927622534, 0.5678578206237735, 0.4998455896231221, 0.4908840718840531, 0.459312523062451, 0.42664845227231585]","[0.7140798110082932, 0.7563157449237113, 0.8034081291552002, 0.789708358570718, 0.744014128557646, 0.7374590288741114, 0.7461697646420047, 0.7295406284967221, 0.737533187724264, 0.7222946964213091]","[0.20950641201454434, 0.16138356429901624, 0.15898116973033571, 0.22927400881364257, 0.1896330357953926, 0.16960120825033786, 0.2463241750188826, 0.238656556612669, 0.278220664661813, 0.2956462441489932]",23,23
Hispanic_Female_Doctor,0.5909090909090909,0.4,-0.1909090909090909,-0.2983333333333333,6.241935483870968,5.857142857142857,-0.3847926267281112,0.011534628414205,0.0119855623368967,0.0075187969924812,0.075187969924812,0.0676691729323308,23,23,0.5711818993249334,0.652281753570508,0.0810998542455746,"[0.32580240757219575, 0.28161878132765994, 0.26558410342102723, 0.3341544071172935, 0.46854383152311757, 0.5008740473639249, 0.5903120309557264, 0.6409731452227959, 0.6580123093663744, 0.7138019309232927]","[0.23548189096800964, 0.21749664820923406, 0.2236606590265016, 0.25252966796151294, 0.3886263803324257, 0.5016849988176112, 0.6040165112261658, 0.6009090881340655, 0.7018984539370855, 0.5325972852080769]","[-0.09032051660418611, -0.06412213311842588, -0.04192344439452564, -0.08162473915578056, -0.07991745119069188, 0.0008109514536862594, 0.013704480270439467, -0.0400640570887304, 0.04388614457071105, -0.18120464571521577]",23,23
Hispanic_Female_Lawyer,0.5555555555555556,0.3333333333333333,-0.2222222222222222,-0.1388888888888889,6.181818181818182,5.966386554621849,-0.2154316271963328,-0.0087509107249421,-0.0088932799482719,0.0075187969924812,0.0977443609022556,0.0902255639097744,23,23,0.5885158822355111,0.6093421053349455,0.0208262230994343,"[0.38195747283949805, 0.3544902504024911, 0.35834843511119824, 0.36884675608084033, 0.44910496536650396, 0.4983038741281564, 0.5888826538880605, 0.5846917569225178, 0.557349039352316, 0.7162007157150512]","[0.39320934849003036, 0.3513428260866967, 0.3474583515424352, 0.37080489992560134, 0.43278275329151344, 0.5244342076334607, 0.5701946519358478, 0.45847762668983655, 0.483026665616282, 0.5729032613526946]","[0.011251875650532317, -0.0031474243157944004, -0.010890083568763032, 0.0019581438447610067, -0.016322212074990516, 0.026130333505304304, -0.01868800195221265, -0.1262141302326813, -0.07432237373603395, -0.14329745436235652]",23,23
Hispanic_Female_Mechanic,0.3684210526315789,0.2631578947368421,-0.1052631578947368,-0.1571428571428571,6.532786885245901,5.9,-0.6327868852459009,-0.002594899749962,-0.0018149359776427,0.0373134328358208,0.044776119402985,0.0074626865671641,23,23,0.9377435117848252,0.9632035891761394,0.0254600773913142,"[0.6761990710735903, 0.6849899439731341, 0.6622528763559284, 0.6386755936574332, 0.7012221911182127, 0.6869127855483412, 0.7010661053873546, 0.7445740231874324, 0.7170223265037136, 0.583970051719181]","[0.7478943839966866, 0.6914852647591198, 0.6471015413712874, 0.6692631379829426, 0.7415163738467057, 0.8219078941494287, 0.7751256080963045, 0.715765029106991, 0.7341419757911161, 0.8123639720764517]","[0.07169531292309628, 0.006495320785985692, -0.015151334984641052, 0.030587544325509364, 0.040294182728492944, 0.13499510860108743, 0.0740595027089499, -0.028808994080441352, 0.017119649287402505, 0.22839392035727069]",23,23
Hispanic_Female_Nurse,0.4761904761904761,0.3076923076923077,-0.1684981684981684,-0.1818181818181818,6.540983606557377,5.373913043478261,-1.1670705630791165,-0.0071890404156665,-0.0059055552927738,0.0,0.0526315789473684,0.0526315789473684,23,23,0.4239825874289589,0.4595963008349328,0.0356137134059739,"[0.21885510141046752, 0.25254011166417045, 0.2706718663751928, 0.24742365035188865, 0.25491849816812995, 0.321169812923132, 0.2637207411604131, 0.2460322316531516, 0.23329997579986073, 0.17354957837666055]","[0.27181084508284103, 0.30386092576162876, 0.33748200922681715, 0.3636193543765049, 0.33554315399886386, 0.37254988750025264, 0.3186755642930346, 0.3081530556712968, 0.30564761351129355, 0.20368748654629432]","[0.05295574367237352, 0.05132081409745831, 0.06681014285162434, 0.11619570402461624, 0.08062465583073392, 0.05138007457712063, 0.05495482313262151, 0.0621208240181452, 0.07234763771143282, 0.03013790816963377]",23,23
Hispanic_Female_Teacher,0.5,0.5,0.0,-0.1636363636363636,5.691056910569106,5.682926829268292,-0.0081300813008136,0.0092953016311209,0.0096234398719484,0.0,0.0298507462686567,0.0298507462686567,23,23,0.8747113191937008,0.8893746750630819,0.014663355869381,"[0.6545666457917979, 0.6733009231325047, 0.6403034793667858, 0.6857290570475058, 0.7458053634889427, 0.7824060286832034, 0.8170162718882266, 0.8167152200625287, 0.7625712300686609, 0.5630537767778707]","[0.667915237635157, 0.6460962575756362, 0.6184679797161369, 0.6397927294614167, 0.6922761089845206, 0.7546282684046064, 0.7708165563715262, 0.8242526165781248, 0.7994505233365279, 0.8953815849272814]","[0.013348591843359126, -0.027204665556868513, -0.021835499650648904, -0.04593632758608901, -0.05352925450442203, -0.02777776027859702, -0.046199715516700324, 0.00753739651559604, 0.036879293267866986, 0.33232780814941065]",23,23
Hispanic_Male_Accountant,0.6875,0.2631578947368421,-0.4243421052631579,-0.1666666666666666,6.03125,5.882352941176471,-0.148897058823529,0.0163579620115142,0.0158733113575271,0.0300751879699248,0.0601503759398496,0.0300751879699248,23,23,0.8842449702150865,0.8881320454550412,0.0038870752399546,"[0.9050996696233231, 0.9281867367341259, 0.8883203954567338, 0.8891591824175447, 0.8800385947236479, 0.8461631608291562, 0.8357544876069636, 0.6433930128909442, 0.6357704692692828, 0.5120088075920605]","[0.9129505140287806, 0.9338981462911179, 0.9170695151943802, 0.8497953529298796, 0.8433879965127121, 0.8546201098047042, 0.7481195104351542, 0.7312481102887154, 0.7566235102818184, 0.6699513612577737]","[0.007850844405457469, 0.005711409556992009, 0.028749119737646378, -0.039363829487665036, -0.03665059821093575, 0.00845694897554794, -0.08763497717180935, 0.0878550973977712, 0.12085304101253558, 0.1579425536657132]",23,23
Hispanic_Male_CEO,0.6363636363636364,0.4137931034482758,-0.2225705329153605,-0.1263888888888888,6.32,5.7844827586206895,-0.5355172413793108,-0.0069291878798161,-0.0050619534999721,0.0451127819548872,0.1052631578947368,0.0601503759398496,23,23,0.6451280829327246,0.7233607819976833,0.0782326990649586,"[0.52526925809613, 0.49023509562219003, 0.45709649179382533, 0.5020865454310565, 0.5463933837363694, 0.6627127188697052, 0.7016079132499273, 0.717471621462678, 0.7183106555706422, 0.6931119479703899]","[0.5448908142254664, 0.5284755460530561, 0.5134522874667733, 0.5451264645293707, 0.6579821395194055, 0.6927271643689911, 0.7027557134270783, 0.688593505617855, 0.711385283665606, 0.8591340744245188]","[0.01962155612933636, 0.0382404504308661, 0.05635579567294796, 0.04303991909831428, 0.11158875578303618, 0.03001444549928589, 0.0011478001771509927, -0.028878115844822916, -0.006925371905036171, 0.16602212645412895]",23,23
Hispanic_Male_Cashier,0.7,0.4230769230769231,-0.2769230769230769,-0.3229166666666666,6.511811023622047,6.067796610169491,-0.4440144134525559,0.0036469524862249,0.0026602398592656,0.0,0.075187969924812,0.075187969924812,23,23,0.7573131477224252,0.7601848857100516,0.0028717379876264,"[0.6078817320482173, 0.6327057334343692, 0.6256342866043834, 0.6278181701875295, 0.6058874978799831, 0.6129450969698569, 0.6307691060606507, 0.542267249635463, 0.5228151405251487, 0.4547362360503615]","[0.6238220144611126, 0.6522003785100065, 0.5912117874195048, 0.5914397825153673, 0.6041125838050584, 0.5825793570659297, 0.5812857595065226, 0.5416840162355872, 0.4406195150296611, 0.4804628457072385]","[0.015940282412895357, 0.01949464507563725, -0.03442249918487861, -0.03637838767216217, -0.0017749140749246939, -0.030365739903927214, -0.049483346554128116, -0.000583233399875871, -0.08219562549548753, 0.02572660965687701]",23,23
Asian_Female_Accountant,0.6071428571428571,0.4210526315789473,-0.1860902255639097,-0.15,5.811475409836065,6.049180327868853,0.2377049180327874,0.0135428405048375,0.0134337047777859,0.0225563909774436,0.0075187969924812,-0.0150375939849624,23,23,0.7136632948071973,0.7467972135128483,0.033133918705651,"[0.4766938141030926, 0.47202740021697487, 0.3748370403171754, 0.38847278808174485, 0.5097447332529547, 0.6036929046596354, 0.722773377094148, 0.6420213458796175, 0.6753757312302345, 0.6984868846431412]","[0.5177919707274067, 0.41720235878712036, 0.33172970646439354, 0.38022563623658295, 0.4606500419303055, 0.5808129653277168, 0.6689950564263876, 0.7972757530360637, 0.739981339302925, 0.8309175060085121]","[0.0410981566243141, -0.054825041429854504, -0.04310733385278187, -0.008247151845161893, -0.04909469132264915, -0.022879939331918675, -0.05377832066776045, 0.15525440715644623, 0.06460560807269045, 0.13243062136537087]",23,23
Asian_Female_CEO,0.55,0.7037037037037037,0.1537037037037036,0.2016666666666666,6.25,5.92,-0.33,0.0062179868104624,0.0064042901284294,0.0526315789473684,0.0676691729323308,0.0150375939849624,23,23,0.7736339073563209,0.8182206435558047,0.0445867361994838,"[0.4588770354856921, 0.4501313544810312, 0.4763551921360604, 0.5140652020958606, 0.6391644629224601, 0.7775352638495564, 0.8299636998285931, 0.8102157174694485, 0.8306865941720933, 0.8625719683170695]","[0.506746339837133, 0.4582768929991815, 0.4728570276591807, 0.5535244118190752, 0.7034618682075875, 0.7601417859670788, 0.8372618069233618, 0.7905038032140741, 0.8655764368277004, 0.9091155739315641]","[0.04786930435144093, 0.008145538518150308, -0.003498164476879728, 0.039459209723214594, 0.0642974052851274, -0.01739347788247758, 0.0072981070947687465, -0.01971191425537444, 0.03488984265560702, 0.046543605614494554]",23,23
Asian_Female_Cashier,0.5454545454545454,0.4,-0.1454545454545454,-0.2333333333333333,6.40625,6.194915254237288,-0.2113347457627119,0.0228824785042762,0.0222930248532602,0.0526315789473684,0.0225563909774436,-0.0300751879699248,23,23,0.8499973658505422,0.8183837040539691,-0.0316136617965731,"[0.6652868182278437, 0.6831662040927362, 0.6981528047260134, 0.7075669980384933, 0.6822229448931046, 0.6902580215708753, 0.6400275501870977, 0.6383294092330493, 0.6438921401103995, 0.2961833938642894]","[0.6842418373222244, 0.6977798252202435, 0.6875191425674231, 0.672910266976475, 0.6537584139142694, 0.7101642554417715, 0.6305141112513856, 0.4848396563253473, 0.4167724063314085, 0.2225168686519861]","[0.018955019094380687, 0.014613621127507304, -0.010633662158590296, -0.034656731062018276, -0.02846453097883528, 0.019906233870896184, -0.009513438935712104, -0.15348975290770195, -0.22711973377899103, -0.07366652521230327]",23,23
Asian_Female_Cleaner,0.6363636363636364,0.4166666666666667,-0.2196969696969696,-0.1875,6.032,5.767857142857143,-0.2641428571428568,0.0025874469339626,0.002909191281021,0.0601503759398496,0.037593984962406,-0.0225563909774436,23,23,0.8298113300886406,0.8508518871894882,0.0210405571008476,"[0.6334053575467089, 0.6483735587654076, 0.6248331261677716, 0.6596144496920673, 0.6551858466048511, 0.6648048754584621, 0.686401509334431, 0.6590021812317749, 0.5898493217191887, 0.4443681264902303]","[0.6031557788077376, 0.6406569874498862, 0.627457380328993, 0.6580668936755957, 0.6984712831871212, 0.6579052146815885, 0.6490129646238921, 0.5793250906237578, 0.5598050238878738, 0.5839916895184105]","[-0.030249578738971272, -0.007716571315521392, 0.002624254161221362, -0.0015475560164716073, 0.04328543658227002, -0.006899660776873651, -0.037388544710538874, -0.07967709060801709, -0.030044297831314903, 0.13962356302818024]",23,23
Asian_Female_Doctor,0.4090909090909091,0.5714285714285714,0.1623376623376622,0.2222222222222222,6.391666666666667,5.556451612903226,-0.8352150537634406,0.0202220909474754,0.0198238734499223,0.0150375939849624,0.0601503759398496,0.0451127819548872,23,23,0.941572886003284,0.9257971192382436,-0.0157757667650405,"[0.6946371481454917, 0.6808469841240778, 0.7100521331296228, 0.7856002738605331, 0.8256269393496535, 0.8469676867885735, 0.8811494859325425, 0.8765678309994811, 0.8879872925240092, 0.9116996261244832]","[0.5607567364683975, 0.621550247161474, 0.6164589203539349, 0.6329074965065443, 0.72335475282199, 0.7096068399239718, 0.7711886610636997, 0.6852098038941201, 0.7965194704235926, 0.6920537131768163]","[-0.1338804116770942, -0.059296736962603847, -0.09359321277568788, -0.15269277735398878, -0.10227218652766346, -0.1373608468646017, -0.10996082486884284, -0.19135802710536098, -0.0914678221004166, -0.2196459129476669]",23,23
Asian_Female_Lawyer,0.5769230769230769,0.6666666666666666,0.0897435897435897,0.1796296296296296,6.270491803278689,6.105691056910569,-0.1648007463681198,0.0003527027629599,-0.0011729620392206,0.0150375939849624,0.0977443609022556,0.0827067669172932,23,23,0.7879457623903596,0.7830650016357283,-0.0048807607546312,"[0.4160235319346011, 0.44089958518677647, 0.4598835975356857, 0.5062052718342691, 0.5395397695174996, 0.5974102061953468, 0.6337673997299133, 0.609006755330079, 0.6025298612203592, 0.7806199835573011]","[0.4066479123455437, 0.3918887817841682, 0.4325722019124634, 0.4758428919923091, 0.5416685349798797, 0.6428906819748861, 0.6437768904378797, 0.6433753585193083, 0.6086403744283603, 0.6441697586944027]","[-0.009375619589057416, -0.04901080340260827, -0.027311395623222268, -0.030362379841959997, 0.0021287654623800556, 0.04548047577953929, 0.010009490707966417, 0.034368603189229296, 0.006110513208001045, -0.13645022486289837]",23,23
Asian_Female_Mechanic,0.55,0.3846153846153846,-0.1653846153846154,-0.0119047619047619,6.201612903225806,6.119658119658119,-0.0819547835676868,0.0280345730823929,0.028089020220592,0.0075187969924812,0.037593984962406,0.0300751879699248,23,23,0.9149849993589696,0.8908899815424219,-0.0240950178165476,"[0.5933934760173531, 0.5919317580367537, 0.6216621922943623, 0.6147281688968568, 0.614452832822116, 0.6807743558087475, 0.6269003218375099, 0.5768955025818439, 0.5465945732325371, 0.33182504348592795]","[0.6205907802691983, 0.630191388172071, 0.6041205446508598, 0.6477469855871681, 0.6788127424755289, 0.6564385869876586, 0.542000815206342, 0.5018345954921825, 0.5033065094815604, 0.7224474027239225]","[0.02719730425184519, 0.0382596301353173, -0.01754164764350241, 0.03301881669031137, 0.06435990965341287, -0.0243357688210889, -0.08489950663116785, -0.0750609070896614, -0.04328806375097671, 0.39062235923799454]",23,23
Asian_Female_Nurse,0.6666666666666666,0.4285714285714285,-0.238095238095238,-0.13,5.713114754098361,5.641025641025641,-0.0720891130727192,0.0211641649758118,0.021172211473985,0.0075187969924812,0.0225563909774436,0.0150375939849624,23,23,0.6687754766577086,0.703912908428709,0.0351374317710003,"[0.31737792859070707, 0.43945976294562966, 0.49606358054737454, 0.46770692793159546, 0.42420440980893753, 0.43122801385280096, 0.36829800180874717, 0.2903390825912357, 0.1376745754348807, 0.23677111874791698]","[0.4397850995437301, 0.5017515805813858, 0.5216416979319283, 0.5586396670361099, 0.536114147039669, 0.5158275165856808, 0.3566778827434993, 0.28612921792761337, 0.2871640276527201, 0.1838809028408757]","[0.122407170953023, 0.06229181763575614, 0.025578117384553734, 0.09093273910451444, 0.11190973723073144, 0.08459950273287986, -0.011620119065247847, -0.004209864663622331, 0.14948945221783938, -0.052890215907041294]",23,23
White_Female_Accountant,0.6470588235294118,0.631578947368421,-0.0154798761609907,0.0642857142857143,6.425196850393701,5.880952380952381,-0.5442444694413195,0.0073149707106297,0.0065135888045151,0.0150375939849624,0.0300751879699248,0.0150375939849624,23,23,0.6798597271312138,0.6713161884392005,-0.0085435386920132,"[0.4834251588204651, 0.48492160161389714, 0.43705837593186875, 0.4756166111856861, 0.6085860955534033, 0.6735654288997635, 0.7103509858831016, 0.7642332302340361, 0.6746062097513622, 0.49572018035380366]","[0.4044260333094645, 0.4800161248173859, 0.5012568004318062, 0.5526668512895347, 0.646720621091552, 0.7513951218724946, 0.8410130444088789, 0.7769264839022281, 0.7710959930660719, 0.17034750337284635]","[-0.07899912551100058, -0.00490547679651121, 0.06419842449993746, 0.07705024010384864, 0.03813452553814878, 0.07782969297273112, 0.13066205852577728, 0.012693253668191962, 0.0964897833147097, -0.3253726769809573]",23,23
White_Female_CEO,0.8823529411764706,0.5769230769230769,-0.3054298642533937,-0.3854166666666667,6.633587786259542,5.836065573770492,-0.7975222124890502,-0.0004577878900587,-0.0017238547153726,0.0676691729323308,0.0601503759398496,-0.0075187969924812,23,23,0.7040777410938344,0.8365411523100559,0.1324634112162215,"[0.37288799454471067, 0.299448755730173, 0.3011675799033898, 0.34938204190968075, 0.5132272598974058, 0.5893974064844946, 0.714978208448636, 0.7106293120304646, 0.6968732788197416, 0.8420033426279337]","[0.4467298745889913, 0.3131871901556432, 0.3230486259707552, 0.43720405577999094, 0.6429433074754192, 0.8053329563446472, 0.8976103565446492, 0.8743756431595535, 0.8834479964271671, 0.9862126647329449]","[0.07384188004428066, 0.013738434425470236, 0.02188104606736535, 0.08782201387031019, 0.12971604757801336, 0.21593554986015262, 0.18263214809601314, 0.16374633112908887, 0.1865747176074255, 0.14420932210501114]",23,23
White_Female_Cashier,0.8235294117647058,0.5652173913043478,-0.258312020460358,-0.125,6.569230769230769,6.235772357723577,-0.3334584115071921,0.0019229127887064,0.0029827835159712,0.0451127819548872,0.0902255639097744,0.0451127819548872,23,23,0.7735303147020245,0.7606012534914541,-0.0129290612105703,"[0.6014554630124797, 0.6410136159493064, 0.6388220517152738, 0.6350879084559575, 0.6563290195699526, 0.6484280063398518, 0.5642432284660157, 0.46896561369965745, 0.498674470743966, 0.3991478189157982]","[0.6127605236134118, 0.6346678453797783, 0.6263737842742855, 0.604761469094439, 0.6091165747233466, 0.5973677873924749, 0.5525040352555805, 0.4843321680381133, 0.5107187445266709, 0.5160906832531634]","[0.01130506060093217, -0.00634577056952812, -0.01244826744098837, -0.030326439361518576, -0.04721244484660603, -0.05106021894737689, -0.011739193210435261, 0.015366554338455851, 0.012044273782704895, 0.11694286433736523]",23,23
White_Female_Cleaner,0.9032258064516128,0.4761904761904761,-0.4270353302611367,-0.375,5.8538461538461535,6.295081967213115,0.4412358133669611,0.0088000837527828,0.0091514755084489,0.0526315789473684,0.112781954887218,0.0601503759398496,23,23,0.796915859181884,0.8204112397789357,0.0234953805970516,"[0.5740330841532486, 0.5686497028338596, 0.5836008644063198, 0.6001286406814726, 0.608386078650386, 0.6655734895095149, 0.5947175529407126, 0.6244455149532886, 0.47328077854209344, 0.5484295005393627]","[0.5295241773919654, 0.52958224824621, 0.5580468469715578, 0.5981883268438645, 0.649819944222385, 0.6110080046313053, 0.5606951698621379, 0.5259325946195387, 0.5496551932007788, 0.5383530685561835]","[-0.04450890676128316, -0.0390674545876496, -0.025554017434761933, -0.0019403138376081763, 0.04143386557199902, -0.05456548487820956, -0.03402238307857475, -0.09851292033374992, 0.07637441465868539, -0.010076431983179202]",23,23
White_Female_Doctor,0.7777777777777778,0.4,-0.3777777777777777,-0.3333333333333333,6.744186046511628,6.074380165289257,-0.6698058812223717,-0.0045031780284336,-0.0023393082785443,0.0601503759398496,0.150375939849624,0.0902255639097744,23,23,0.7312646552448855,0.6578192316208957,-0.0734454236239897,"[0.0574952359428258, 0.0613993687743054, 0.08270864274522871, 0.1202035997271029, 0.20439277740573744, 0.27488060533717773, 0.5254701615361135, 0.7085664944599583, 0.711713799601655, 0.7475801289404046]","[0.015529298135660565, 0.010144578422416088, 0.03713668301770801, 0.0670485495358642, 0.17678453257078586, 0.2503771331271235, 0.34699727903206334, 0.3600837445807613, 0.5536242095982379, 0.5730279647568711]","[-0.04196593780716524, -0.05125479035188931, -0.0455719597275207, -0.0531550501912387, -0.027608244834951584, -0.024503472210054222, -0.17847288250405013, -0.34848274987919703, -0.15808959000341716, -0.17455216418353348]",23,23
White_Female_Lawyer,0.8636363636363636,0.6296296296296297,-0.234006734006734,-0.0454545454545454,6.346153846153846,6.195121951219512,-0.1510318949343334,-0.000613856896745,0.0005053518985806,0.075187969924812,0.1278195488721804,0.0526315789473684,23,23,0.8582146353421728,0.8253429603681915,-0.0328716749739812,"[0.41773431316978477, 0.433397149202484, 0.4553976558674153, 0.508042773068108, 0.6717101601557133, 0.7324399077661672, 0.7386641743557979, 0.8206467722197215, 0.8319775997984851, 0.8285169176097744]","[0.40698084413638624, 0.4166070335072339, 0.43087978278304156, 0.5061301386975511, 0.5695902624919037, 0.7840653078677343, 0.7990798543384323, 0.851296689671956, 0.8423711297624846, 0.8491642957370074]","[-0.010753469033398522, -0.01679011569525013, -0.024517873084373754, -0.0019126343705568871, -0.10211989766380958, 0.05162540010156713, 0.06041567998263442, 0.030649917452234554, 0.01039352996399956, 0.02064737812723294]",23,23
White_Female_Mechanic,0.88,0.5,-0.38,-0.2092592592592592,6.061538461538461,6.377049180327869,0.3155107187894073,0.0211780479538749,0.0219705781975447,0.0225563909774436,0.0676691729323308,0.0451127819548872,23,23,0.9506105522758632,0.9414889197681152,-0.0091216325077481,"[0.6778898774035848, 0.664219228037382, 0.6913881121481932, 0.7216928336718361, 0.8126812036009222, 0.7802940734894908, 0.8324845626184536, 0.8326272115944615, 0.7340247115469771, 0.5538902521700392]","[0.6255324077902442, 0.6412930916935313, 0.634217284409778, 0.6541178247859015, 0.7659719943450226, 0.7831246652545076, 0.8364447590464231, 0.7622643678754994, 0.7219287925275383, 0.6045860288122257]","[-0.052357469613340535, -0.022926136343850656, -0.0571708277384152, -0.0675750088859346, -0.04670920925589961, 0.0028305917650168766, 0.00396019642796952, -0.07036284371896206, -0.01209591901943885, 0.050695776642186496]",23,23
White_Female_Nurse,0.7692307692307693,0.5555555555555556,-0.2136752136752137,-0.1666666666666666,6.069230769230769,5.92,-0.149230769230769,-0.0250369822238183,-0.0243940362278157,0.0526315789473684,0.0902255639097744,0.037593984962406,23,23,0.7045018108503021,0.607375308985513,-0.0971265018647891,"[0.5248730480862386, 0.6600731782965923, 0.6342924027901095, 0.5646775760668951, 0.5145783698782738, 0.35881256659872396, 0.228789445616003, 0.15680266757846922, 0.21222402784295802, 0.0]","[0.5367977604654607, 0.6383810396003862, 0.6829926698349869, 0.6499976085059831, 0.47555537160404915, 0.320609787453767, 0.3253411425692712, 0.22834532603978133, 0.3336697642633964, 0.15345801268409756]","[0.011924712379222102, -0.02169213869620612, 0.0487002670448774, 0.08532003243908803, -0.03902299827422462, -0.038202779144956955, 0.0965516969532682, 0.07154265846131211, 0.12144573642043838, 0.15345801268409756]",23,23
Native American_Male_CEO,0.6428571428571429,0.5,-0.1428571428571429,-0.1944444444444444,7.064516129032258,6.579831932773109,-0.484684196259149,0.0245395455671152,0.0233401950129004,0.0298507462686567,0.0671641791044776,0.0373134328358208,23,23,0.5499307609567,0.6912039175557346,0.1412731565990346,"[0.40665518451552246, 0.4688797710335773, 0.5585776961612563, 0.5851258892887798, 0.6061554301208669, 0.5989683644096243, 0.6153530033977291, 0.6136980069161962, 0.5968090298013962, 0.5340291897983342]","[0.5955318728060606, 0.64351482488179, 0.7028764830092503, 0.7349284976173188, 0.7542497124528557, 0.788343304122294, 0.7789756566012809, 0.7676080806550379, 0.7605747765942091, 0.6975560351735924]","[0.1888766882905381, 0.1746350538482127, 0.14429878684799402, 0.14980260832853898, 0.14809428233198874, 0.18937493971266972, 0.16362265320355174, 0.1539100737388417, 0.16376574679281297, 0.1635268453752582]",23,23
Native American_Male_Cashier,0.6153846153846154,0.1538461538461538,-0.4615384615384615,-0.5020833333333333,6.455284552845528,6.558558558558558,0.1032740057130299,0.0142018127692822,0.0142514228204929,0.0225563909774436,0.0601503759398496,0.037593984962406,23,23,0.8278145598658068,0.8032045774867675,-0.0246099823790392,"[0.6833268096951653, 0.719300097646684, 0.7140945943101272, 0.6952861977387088, 0.691372653893729, 0.6550893016801158, 0.6036940685692055, 0.5526621742813491, 0.5203459715146442, 0.49846026173920305]","[0.6853049544654491, 0.7080209014286759, 0.6976849350035919, 0.698165676892791, 0.6724700360898821, 0.6366413911225401, 0.5498333736960889, 0.46979789870077227, 0.45401980133526226, 0.3960519606385365]","[0.001978144770283796, -0.011279196218008103, -0.016409659306535374, 0.002879479154082154, -0.018902617803846944, -0.018447910557575664, -0.05386069487311662, -0.08286427558057685, -0.06632617017938197, -0.10240830110066657]",23,23
Native American_Male_Cleaner,0.5217391304347826,0.3076923076923077,-0.2140468227424748,-0.3303030303030302,6.772357723577236,6.215517241379311,-0.5568404821979254,0.00042864516408,0.0018956397658855,0.044776119402985,0.1119402985074626,0.0671641791044776,23,23,0.8833738814206807,0.8997383931496638,0.016364511728983,"[0.7245038480532154, 0.7270768690288257, 0.7115133537711489, 0.7412082545546778, 0.7698415157207714, 0.7851736837482839, 0.7554890940537102, 0.750703225864516, 0.6675412408527237, 0.5630839608284978]","[0.7511603543733061, 0.7387901733321306, 0.7374734414177395, 0.7612639525955884, 0.786966844685323, 0.750585231784287, 0.6987794304881525, 0.6534517616045045, 0.635481592206373, 0.703514316222107]","[0.026656506320090645, 0.011713304303304861, 0.025960087646590635, 0.020055698040910674, 0.017125328964551545, -0.03458845196399685, -0.05670966356555773, -0.09725146426001152, -0.03205964864635069, 0.14043035539360926]",23,23
Native American_Male_Doctor,0.6190476190476191,0.5185185185185185,-0.1005291005291005,-0.0416666666666666,6.768,6.725,-0.0430000000000001,-0.0049513582687619,-0.0048359147386,0.0451127819548872,0.0827067669172932,0.037593984962406,23,23,0.354078814255157,0.5290847647687431,0.175005950513586,"[0.0801779739525659, 0.09683364572981316, 0.14055229314770926, 0.2465376886942493, 0.2758095966033832, 0.3393998750191427, 0.42702710257600923, 0.44314972276713616, 0.5202282480744564, 0.4214940954101843]","[0.1946673365182654, 0.2580511242344888, 0.24815895305161528, 0.2904896311371397, 0.3707238712989709, 0.41024432092264584, 0.46847510091584577, 0.5413284636741653, 0.587323327148946, 0.47949806094562614]","[0.1144893625656995, 0.1612174785046756, 0.10760665990390603, 0.04395194244289041, 0.09491427469558766, 0.07084444590350314, 0.041447998339836534, 0.09817874090702916, 0.06709507907448953, 0.05800396553544185]",23,23
Native American_Male_Lawyer,0.48,0.68,0.2,0.2361111111111111,7.181818181818182,6.904761904761905,-0.2770562770562765,0.0037938149622804,0.0036576623578798,0.0373134328358208,0.0597014925373134,0.0223880597014925,23,23,0.3395409072845979,0.4727738659643038,0.1332329586797058,"[0.14542223390811856, 0.19866040596345985, 0.2754764311284491, 0.3047423621315964, 0.31469868876073515, 0.3347763496652575, 0.3431133672589583, 0.3282396131652653, 0.3377799756086881, 0.31636320138993324]","[0.3375125818121302, 0.4718332635905794, 0.4807607062394474, 0.4439748563951596, 0.49882513068677936, 0.49556637027978956, 0.46856858072560237, 0.4977848683674638, 0.5354573652207046, 0.4771975754650774]","[0.1920903479040116, 0.27317285762711957, 0.20528427511099828, 0.1392324942635632, 0.18412644192604422, 0.16079002061453207, 0.12545521346664407, 0.16954525520219849, 0.19767738961201653, 0.16083437407514417]",23,23
Native American_Male_Mechanic,0.6666666666666666,0.4782608695652174,-0.1884057971014492,-0.1666666666666667,6.286821705426356,5.795081967213115,-0.4917397382132416,0.0027561358191947,0.0026774963387319,0.0,0.0746268656716417,0.0746268656716417,23,23,0.8935533967815495,0.912395555272748,0.0188421584911985,"[0.5828002517487928, 0.5913000604320584, 0.5844744569409844, 0.6112346635145152, 0.6057012904606822, 0.5840551984032696, 0.6040400528628831, 0.6469266853612953, 0.5781551679821147, 0.5465984415065425]","[0.6396068055679766, 0.6982258110025003, 0.6521517346591299, 0.6213578020561055, 0.6520345734268402, 0.7002810417793129, 0.6687262016531886, 0.5916608165391481, 0.6045386821924361, 0.471141475017693]","[0.05680655381918376, 0.10692575057044185, 0.06767727771814547, 0.010123138541590304, 0.04633328296615802, 0.11622584337604336, 0.06468614879030554, -0.055265868822147124, 0.026383514210321368, -0.07545696648884948]",23,23
Native American_Male_Nurse,0.8125,0.35,-0.4625,-0.3148148148148149,6.6,6.683333333333334,0.0833333333333339,-0.0097590171329963,-0.0069908564879637,0.0300751879699248,0.1804511278195488,0.150375939849624,23,23,0.4446370873271446,0.5568517730262339,0.1122146856990893,"[0.30953034994696377, 0.42861033994303094, 0.46615589493933457, 0.49928656105676106, 0.39829166950858885, 0.33237253214234935, 0.3005493633120709, 0.26012083356556653, 0.157167820014494, 0.12891200907719322]","[0.48126293882432647, 0.5999700051013974, 0.6226916844024847, 0.5246555083569998, 0.502807669121759, 0.40365158893626313, 0.2629134571324579, 0.25219535223465456, 0.2684722747208768, 0.5337948314981666]","[0.1717325888773627, 0.17135966515836648, 0.1565357894631501, 0.025368947300238753, 0.10451599961317015, 0.07127905679391378, -0.03763590617961299, -0.007925481330911976, 0.11130445470638281, 0.4048828224209734]",23,23
Native American_Male_Teacher,0.5714285714285714,0.3448275862068966,-0.2266009852216748,-0.2604166666666666,6.28,6.843478260869565,0.563478260869565,0.005232221990525,0.0055293647796963,0.0074626865671641,0.0746268656716417,0.0671641791044776,23,23,0.881980622515097,0.9249131961280052,0.0429325736129082,"[0.5864660047052564, 0.6390047535994, 0.6684137900560382, 0.6628612468622748, 0.7218352731437041, 0.7058514664253837, 0.7079810835493814, 0.6463967094062212, 0.6536650814910956, 0.464316030720791]","[0.6877759895688565, 0.7487137333382655, 0.7564681396798332, 0.7699036968001068, 0.7942707230075992, 0.7472420603372185, 0.7347320632780535, 0.654062874198091, 0.5974011304436398, 0.5274036456172514]","[0.1013099848636001, 0.10970897973886551, 0.08805434962379499, 0.10704244993783207, 0.07243544986389505, 0.04139059391183486, 0.02675097972867213, 0.007666164791869767, -0.05626395104745574, 0.06308761489646042]",23,23
Hispanic_Male_Cleaner,0.5,0.2894736842105263,-0.2105263157894736,-0.3020833333333333,6.32520325203252,5.299065420560748,-1.0261378314717726,-0.0282421560141579,-0.0287320507390377,0.0373134328358208,0.126865671641791,0.0895522388059701,23,23,0.7778227314945573,0.7532639871927008,-0.0245587443018564,"[0.625556512423794, 0.6237705841434685, 0.6309937213629733, 0.634921365088475, 0.646720345942714, 0.6458414695192053, 0.6297867298036571, 0.6254332204431814, 0.5782676153515776, 0.5536447760625341]","[0.6156842368181246, 0.6048949371267007, 0.6021919603968477, 0.6104411349843135, 0.6219507920713798, 0.6462338889243334, 0.6655624181542437, 0.6251134588951204, 0.5872716665924997, 0.8052597324785997]","[-0.00987227560566939, -0.018875647016767805, -0.028801760966125523, -0.02448023010416145, -0.02476955387133417, 0.00039241940512813045, 0.03577568835058653, -0.000319761548061015, 0.009004051240922184, 0.25161495641606557]",23,23
Hispanic_Male_Doctor,0.5357142857142857,0.5714285714285714,0.0357142857142857,0.0033333333333333,6.132231404958677,6.226890756302521,0.0946593513438438,0.0051184668382332,0.0054627492948028,0.0298507462686567,0.0373134328358208,0.0074626865671641,23,23,0.633770372344998,0.6901143165147231,0.0563439441697251,"[0.43194892132945556, 0.38051723513443014, 0.4324698879617015, 0.4201192266681593, 0.5241411669806143, 0.6417722857435139, 0.6897437622924842, 0.6557139655521873, 0.6392873766236383, 0.7896853451836807]","[0.35310619876271354, 0.3532501319490944, 0.3466713855048301, 0.37218738054700296, 0.4739288403159261, 0.5721531296334887, 0.6507185549151498, 0.5343867453534732, 0.662029002527838, 0.8070060001365176]","[-0.07884272256674202, -0.02726710318533576, -0.08579850245687137, -0.04793184612115636, -0.05021232666468822, -0.06961915611002512, -0.03902520737733439, -0.12132722019871411, 0.022741625904199703, 0.017320654952836856]",23,23
Hispanic_Male_Lawyer,0.6666666666666666,0.5714285714285714,-0.0952380952380952,-0.2,6.4765625,6.669291338582677,0.1927288385826768,-0.0283521810070366,-0.0272459414898749,0.0300751879699248,0.1052631578947368,0.075187969924812,23,23,0.7278922643551422,0.7366446340359208,0.0087523696807786,"[0.5124900044480115, 0.5134099970204657, 0.4911335260789736, 0.5154612099879985, 0.5497083821912476, 0.6307668658260153, 0.6788232920441626, 0.7068597450282691, 0.7798797791744851, 0.6228521667723103]","[0.5128383602876841, 0.49429092262102065, 0.4730086931330233, 0.5031121996795169, 0.5839755838776466, 0.6643473432379674, 0.7164332354885239, 0.7692954432174246, 0.7685166920637494, 0.8014773451950563]","[0.0003483558396726316, -0.019119074399445102, -0.018124832945950298, -0.012349010308481567, 0.03426720168639896, 0.03358047741195214, 0.037609943444361305, 0.06243569818915551, -0.011363087110735748, 0.17862517842274606]",23,23
Hispanic_Male_Mechanic,0.6,0.44,-0.1599999999999999,-0.1785714285714285,6.039370078740157,5.226890756302521,-0.8124793224376363,-0.0244041529471489,-0.0243852833200188,0.0300751879699248,0.112781954887218,0.0827067669172932,23,23,0.9895855867536996,0.9928831498699148,0.0032975631162153,"[0.8741579279793147, 0.85597399266326, 0.8580035798119817, 0.9019425282670156, 0.9026909224821178, 0.9031199640826666, 0.9092563102820511, 0.920272701465925, 0.8838212090612299, 0.8448122009356526]","[0.892503786642682, 0.8968850880597026, 0.885938341525196, 0.9125042976854176, 0.9136345991913047, 0.9226335514035403, 0.9216927996726322, 0.8963879244894292, 0.8753729957545773, 0.8234923819866053]","[0.018345858663367354, 0.040911095396442554, 0.027934761713214296, 0.010561769418402034, 0.010943676709186945, 0.019513587320873715, 0.012436489390581063, -0.023884776976495825, -0.008448213306652574, -0.02131981894904722]",23,23
Hispanic_Male_Nurse,0.6470588235294118,0.375,-0.2720588235294118,-0.4761904761904763,6.3984375,5.62280701754386,-0.7756304824561404,0.0116591115074663,0.0120501402931082,0.0,0.0522388059701492,0.0522388059701492,23,23,0.9250316695594974,0.9191997093577352,-0.0058319602017621,"[0.9274475513654842, 0.949539496714863, 0.9402834451474421, 0.942297483890522, 0.8902230676904657, 0.8430110103507179, 0.7864426499225062, 0.6982662250900686, 0.6553916145960847, 0.6709340778287219]","[0.9198529243974151, 0.951798011086295, 0.9497175851002322, 0.9244026526832286, 0.8807497886455162, 0.7692434770024252, 0.7349049962099566, 0.6755069202989377, 0.6205244434360253, 0.5278246476374907]","[-0.007594626968069118, 0.0022585143714319855, 0.009434139952790077, -0.017894831207293405, -0.009473279044949434, -0.07376753334829267, -0.05153765371254959, -0.022759304791130974, -0.03486717116005944, -0.14310943019123123]",23,23
Hispanic_Male_Teacher,0.5652173913043478,0.238095238095238,-0.3271221532091097,-0.25,6.260162601626016,6.2905982905982905,0.0304356889722745,0.0022585689784056,0.0025269570327407,0.0,0.037593984962406,0.037593984962406,23,23,0.9005877485774212,0.8966598116522818,-0.0039279369251393,"[0.664753457677631, 0.6848057492419738, 0.6718559609427583, 0.7042179047796122, 0.7703363653010784, 0.7953412743541627, 0.805594644390346, 0.8511530998349295, 0.8608264412492261, 0.8882047397919663]","[0.6698103926526096, 0.649907141954585, 0.631058565405338, 0.6559652889027029, 0.7105125720082669, 0.7657116968165608, 0.8012559410161224, 0.7804165491529275, 0.7114265018852758, 0.9951490337908891]","[0.0050569349749785, -0.034898607287388805, -0.040797395537420345, -0.04825261587690932, -0.05982379329281151, -0.02962957753760187, -0.004338703374223596, -0.07073655068200202, -0.14939993936395035, 0.1069442939989228]",23,23
Native American_Female_Accountant,0.5,0.3333333333333333,-0.1666666666666666,-0.1212121212121211,6.355371900826446,6.270491803278689,-0.0848800975477575,-0.0202923451740073,-0.0205055357967538,0.0074626865671641,0.0820895522388059,0.0746268656716418,23,23,0.520941998257012,0.7083153678599219,0.1873733696029098,"[0.35705178893713524, 0.3739497264711413, 0.4323098408759538, 0.4231644576872717, 0.4078000790365136, 0.44143842996368593, 0.43201466942568717, 0.5557893955865263, 0.567490616857689, 0.46844745855641456]","[0.6188487838632131, 0.6456716411299096, 0.6035374914145558, 0.6618479685568163, 0.6577584832846639, 0.7235010510447186, 0.7344606631212169, 0.7493536855825271, 0.7529672759275389, 0.7014422745404594]","[0.26179699492607783, 0.2717219146587683, 0.171227650538602, 0.2386835108695446, 0.2499584042481503, 0.2820626210810327, 0.30244599369552977, 0.19356428999600084, 0.1854766590698499, 0.2329948159840448]",23,23
Native American_Female_CEO,0.4074074074074074,0.4375,0.0300925925925926,-0.1818181818181818,6.888888888888889,6.48695652173913,-0.401932367149759,-0.0085506530688734,-0.008728516493313,0.0075187969924812,0.0601503759398496,0.0526315789473684,23,23,0.4077490862400143,0.6318675808947481,0.2241184946547338,"[0.2914615748594893, 0.344405412948852, 0.387745282291743, 0.4492303299438692, 0.444882985544588, 0.4338856614912662, 0.46682991402287544, 0.470088319874649, 0.4995005304907679, 0.41250321502906456]","[0.5388359694448221, 0.6063301965342874, 0.6066918275501866, 0.6327865172039162, 0.6567750477998038, 0.7379039421424523, 0.7807275248506368, 0.8024406467316197, 0.7981492701580233, 0.6906029426984385]","[0.24737439458533284, 0.2619247835854354, 0.2189465452584436, 0.18355618726004702, 0.21189206225521579, 0.3040182806511861, 0.31389761082776135, 0.33235232685697075, 0.29864873966725536, 0.2780997276693739]",23,23
Asian_Female_Teacher,0.56,0.5769230769230769,0.0169230769230768,0.1866666666666666,5.852459016393443,6.057377049180328,0.2049180327868853,0.0130466610629257,0.0122559171874648,0.0225563909774436,0.1052631578947368,0.0827067669172932,23,23,0.897530950724575,0.8943335298280345,-0.0031974208965405,"[0.5585445813288984, 0.5638518914393317, 0.539232509714042, 0.5648003446018379, 0.6265344116563306, 0.7065778942602587, 0.6949416783264041, 0.7855718473514565, 0.7533084990874852, 1.0]","[0.5041535275529504, 0.5241945438731725, 0.5139519486725196, 0.528751776760103, 0.613979696429487, 0.6788526121005894, 0.7112017810685208, 0.6797211148154229, 0.694722204833127, 0.7676686855340662]","[-0.054391053775947995, -0.03965734756615913, -0.02528056104152243, -0.036048567841734935, -0.012554715226843594, -0.027725282159669296, 0.016260102742116755, -0.10585073253603361, -0.05858629425435824, -0.2323313144659338]",23,23
Asian_Male_Accountant,0.7083333333333334,0.5,-0.2083333333333333,-0.0648148148148148,5.857142857142857,6.048780487804878,0.1916376306620213,0.0169058326322722,0.0170749723805296,0.0150375939849624,0.0225563909774436,0.0075187969924812,23,23,0.9714169090485038,0.969958281236923,-0.0014586278115807,"[0.9611095477467447, 0.9729402557757061, 0.9558967274715521, 0.9464772078658884, 0.9528653063689896, 0.9403306002426292, 0.8916982659814544, 0.7447881687063002, 0.6967067009089406, 0.9737989033978399]","[0.9684209426433208, 0.9698750591041384, 0.9734370107572196, 0.9523065603978267, 0.9520528340315167, 0.9195054345777656, 0.8774229273582997, 0.8377507863761964, 0.7912456758844721, 0.7618203983340718]","[0.007311394896576062, -0.0030651966715676826, 0.01754028328566748, 0.005829352531938281, -0.000812472337472836, -0.020825165664863587, -0.014275338623154665, 0.09296261766989622, 0.09453897497553154, -0.21197850506376814]",23,23
Asian_Male_CEO,0.8888888888888888,0.6666666666666666,-0.2222222222222222,-0.2041666666666666,6.3816793893129775,6.32,-0.0616793893129772,0.0170268556428527,0.018140220924865,0.0902255639097744,0.0676691729323308,-0.0225563909774436,23,23,0.9115777778186815,0.9139386733116264,0.0023608954929447,"[0.6231971992422943, 0.6528334692989162, 0.7016053907410883, 0.788084068979753, 0.853764842902656, 0.9171480411037952, 0.9079088879162659, 0.8985080325472468, 0.9351368251155402, 0.8796426177658402]","[0.698515384987466, 0.7094598615189883, 0.7656295862730742, 0.8240755799176301, 0.9103849063690597, 0.9227120924589103, 0.9235201512759081, 0.9386069332332644, 0.9281765050935171, 0.8960845246329613]","[0.07531818574517168, 0.05662639222007215, 0.0640241955319859, 0.035991510937877114, 0.05662006346640369, 0.005564051355115063, 0.015611263359642247, 0.040098900686017624, -0.00696032002202307, 0.016441906867121103]",23,23
Asian_Male_Cashier,0.75,0.3333333333333333,-0.4166666666666667,-0.23125,6.077519379844961,6.516666666666667,0.4391472868217052,-0.0089376405782276,-0.0080836294730464,0.0373134328358208,0.0820895522388059,0.044776119402985,23,23,0.8081799070452168,0.7797175418569114,-0.0284623651883053,"[0.6041051592772473, 0.637987962718328, 0.654609151199505, 0.6525006861905015, 0.6791752238992724, 0.6332415781311562, 0.6068492779532979, 0.5098413358768948, 0.5446977676964317, 0.5343211109094358]","[0.6038877369641839, 0.6363017058100267, 0.6394677151971699, 0.6403562925298507, 0.6179220998261058, 0.6235228599190198, 0.5980657640431839, 0.5650431213019028, 0.5066999340899456, 0.45437357956434965]","[-0.00021742231306343118, -0.0016862569083013756, -0.015141436002335085, -0.012144393660650787, -0.06125312407316663, -0.009718718212136435, -0.008783513910114005, 0.055201785425007976, -0.03799783360648612, -0.07994753134508614]",23,23
Asian_Male_Cleaner,0.75,0.2631578947368421,-0.4868421052631579,-0.3055555555555556,6.330769230769231,6.133333333333334,-0.1974358974358967,0.0333555544802373,0.0320432744405029,0.0298507462686567,0.0522388059701492,0.0223880597014925,23,23,0.889288963945597,0.858544136565976,-0.030744827379621,"[0.6835658565982773, 0.6985271284628045, 0.7234576103906243, 0.7082879447695625, 0.7410860332293584, 0.7080647486382713, 0.7261864214628114, 0.7499595270582367, 0.6250671225718647, 0.6673701410516938]","[0.6818851305972256, 0.6754576291363575, 0.6750992435695788, 0.7041241214613249, 0.7207748956157058, 0.7254367260609587, 0.6435772356120242, 0.5879200289350871, 0.5916668603175383, 0.5159876927736952]","[-0.0016807260010517355, -0.023069499326446974, -0.04835836682104544, -0.004163823308237613, -0.020311137613652552, 0.017371977422687368, -0.08260918585078725, -0.16203949812314955, -0.03340026225432635, -0.15138244827799863]",23,23
Asian_Male_Doctor,0.7777777777777778,0.5,-0.2777777777777778,-0.1428571428571428,6.315384615384615,5.664,-0.6513846153846155,-0.0054037395755632,-0.0049104847815051,0.1044776119402985,0.0895522388059701,-0.0149253731343283,23,23,0.948429120801469,0.9212327049155008,-0.0271964158859681,"[0.5320246166933399, 0.620435396445993, 0.6758535384282764, 0.7229059308121294, 0.7675433236125427, 0.8174081227900785, 0.8231946173260609, 0.8077730064771665, 0.7791467881496537, 0.795281889969567]","[0.4718063448227707, 0.5540325918812484, 0.5925372016939283, 0.7201640279400329, 0.7914857010388885, 0.7410388119514777, 0.7367379682165729, 0.6980200095878918, 0.6421677729392381, 0.4653249849589031]","[-0.06021827187056922, -0.06640280456474457, -0.08331633673434813, -0.0027419028720965244, 0.02394237742634575, -0.07636931083860077, -0.08645664910948803, -0.10975299688927476, -0.13697901521041556, -0.3299569050106638]",23,23
Asian_Male_Lawyer,0.4666666666666667,0.5,0.0333333333333333,-0.1111111111111111,6.420634920634921,6.032,-0.3886349206349209,0.0063650940367217,0.0071477764643912,0.0746268656716417,0.0522388059701492,-0.0223880597014925,23,23,0.881232234396145,0.8761961017128282,-0.0050361326833167,"[0.6117130195765036, 0.6728163050639321, 0.6406516507215245, 0.6571094262533831, 0.7361388073476813, 0.7564785072507715, 0.7877358544056772, 0.8089677818539874, 0.758040036181503, 0.7721245199391241]","[0.5732706751211176, 0.6276994975664087, 0.6266211274368466, 0.6495026265450805, 0.749140077694427, 0.794554310904147, 0.7935751921282532, 0.8256415973830645, 0.8085187105843054, 0.7083806897085283]","[-0.03844234445538597, -0.04511680749752334, -0.01403052328467791, -0.007606799708302581, 0.013001270346745697, 0.038075803653375484, 0.0058393377225760545, 0.016673815529077096, 0.050478674402802404, -0.06374383023059582]",23,23
Asian_Male_Mechanic,0.6666666666666666,0.5,-0.1666666666666666,-0.1541666666666666,6.182539682539683,6.295081967213115,0.1125422846734318,0.0183807286420942,0.0184970350420068,0.0150375939849624,0.0601503759398496,0.0451127819548872,23,23,1.0,0.9946061848798128,-0.0053938151201873,"[0.8724730170270973, 0.8819248504770607, 0.8701576896429839, 0.8970263208938583, 0.9000855192421365, 0.9057729043253795, 0.9071755736117245, 0.830563263379785, 0.7927537029476697, 0.73219159795886]","[0.8914798853036159, 0.884275994091745, 0.8943034418508146, 0.8825924934863107, 0.8943511213380808, 0.9048681452537176, 0.8587741537917309, 0.8326164209179228, 0.7552610817001045, 0.6878167092001549]","[0.01900686827651854, 0.002351143614684248, 0.024145752207830662, -0.014433827407547506, -0.005734397904055721, -0.0009047590716618759, -0.048401419819993574, 0.0020531575381377287, -0.03749262124756514, -0.0443748887587051]",23,23
White_Male_Nurse,0.8947368421052632,0.5263157894736842,-0.368421052631579,-0.3166666666666667,6.151515151515151,6.168,0.0164848484848487,0.0145686889720931,0.0132939136542169,0.0223880597014925,0.044776119402985,0.0223880597014925,23,23,0.7865025581098039,0.6689862537116862,-0.1175163043981176,"[0.6510534800267433, 0.7509083432194492, 0.7313226052134547, 0.7031768662174056, 0.6127573643164712, 0.5143142147448557, 0.4365715604438245, 0.34245892401292066, 0.28058953176268325, 0.2944019980570152]","[0.651769556259153, 0.751145439358787, 0.7547519741701513, 0.6767024524736208, 0.6468525729375617, 0.4938208334964632, 0.3115323618867488, 0.315550493965178, 0.311955049696558, 0.26066274316597193]","[0.000716076232409657, 0.00023709613933775575, 0.02342936895669656, -0.026474413743784786, 0.0340952086210905, -0.020493381248392506, -0.12503919855707568, -0.026908430047742682, 0.031365517933874765, -0.03373925489104329]",23,23
White_Male_Teacher,0.7307692307692307,0.7391304347826086,0.0083612040133779,-0.01,6.071428571428571,5.716535433070866,-0.3548931383577054,0.0254538850604335,0.0250305281774704,0.0451127819548872,0.075187969924812,0.0300751879699248,23,23,0.9517128291005016,0.9663129115428074,0.0146000824423059,"[0.7484776933645317, 0.7318783773170395, 0.7479074755174082, 0.7932638755863544, 0.8466621784533716, 0.8740414156302206, 0.8949811479936807, 0.8433764649735757, 0.7867395656762598, 0.6248614220872728]","[0.7264380926058023, 0.7324389014810402, 0.7519525310295976, 0.7769786410531946, 0.903595904184893, 0.8996482259134672, 0.876600173936646, 0.8213744488344839, 0.8688014903178451, 0.7822586973570291]","[-0.02203960075872946, 0.0005605241640006531, 0.004045055512189366, -0.016285234533159776, 0.056933725731521445, 0.025606810283246517, -0.01838097405703465, -0.022002016139091807, 0.08206192464158535, 0.15739727526975633]",23,23
Asian_Male_Nurse,0.7619047619047619,0.4285714285714285,-0.3333333333333333,-0.25,6.234375,5.928,-0.306375,0.022935180391789,0.022508008536018,0.0300751879699248,0.0300751879699248,0.0,23,23,0.9766541845911252,0.9523297215999555,-0.0243244629911695,"[0.8787849670856247, 0.9081979078280229, 0.9291111460896815, 0.934197084415177, 0.9288255822066197, 0.8089118281651264, 0.7147803909275058, 0.6996151969775687, 0.5383651754646344, 0.19263091646103586]","[0.8785828215289003, 0.9268779780467551, 0.9445431320171163, 0.9169932516130757, 0.8559612599131347, 0.7598590452474745, 0.6255311413363447, 0.49270013376521743, 0.4005590930644913, 0.438785888001448]","[-0.00020214555672437573, 0.018680070218732192, 0.015431985927434777, -0.01720383280210136, -0.07286432229348505, -0.049052782917651916, -0.0892492495911611, -0.20691506321235126, -0.13780608240014308, 0.24615497154041216]",23,23
Asian_Male_Teacher,0.7368421052631579,0.3809523809523809,-0.3558897243107769,-0.3,5.9921875,5.616666666666666,-0.3755208333333337,0.0134038131206264,0.0131005100270416,0.0,0.0451127819548872,0.0451127819548872,23,23,0.9966325977082025,0.9893617114527056,-0.0072708862554967,"[0.8821033413349062, 0.893076105294251, 0.9105823605894695, 0.9350728366276464, 0.9522764801415515, 0.967488517630052, 0.9349249512670906, 0.8825349345253268, 0.825067890527943, 1.0]","[0.8822234559846867, 0.8972868221292242, 0.8974985126759075, 0.8939171351418982, 0.9540311574854041, 0.9474211826587468, 0.9019794879257818, 0.8428462523633451, 0.738550198882087, 0.8593210127595254]","[0.00012011464978045616, 0.004210716834973205, -0.013083847913561986, -0.04115570148574821, 0.0017546773438525953, -0.020067334971305195, -0.03294546334130888, -0.039688682161981736, -0.0865176916458561, -0.14067898724047456]",23,23
Black_Female_Accountant,0.6538461538461539,0.5833333333333334,-0.0705128205128204,-0.0694444444444444,5.975806451612903,6.073170731707317,0.0973642800944141,0.0191924610629845,0.0195404595007104,0.0150375939849624,0.0676691729323308,0.0526315789473684,23,23,0.9197097073375112,0.9123835782164302,-0.0073261291210808,"[0.800173467579976, 0.8153736453565534, 0.7918317817300103, 0.8023242544460535, 0.8304068753082956, 0.7681439116001947, 0.7594140271595687, 0.7382162772903794, 0.6680919932036194, 0.6595376527426445]","[0.7829882219676838, 0.8270095465490896, 0.812448413790371, 0.8041819601170038, 0.8205702560471946, 0.8185938385366183, 0.7391320871790446, 0.7391490297431175, 0.7258195932801211, 0.44872718997704897]","[-0.017185245612292177, 0.011635901192536213, 0.020616632060360685, 0.0018577056709503381, -0.00983661926110102, 0.050449926936423584, -0.02028193998052419, 0.0009327524527380504, 0.057727600076501684, -0.21081046276559556]",23,23
Black_Female_CEO,0.4782608695652174,0.4193548387096774,-0.0589060308555399,-0.1866666666666666,6.401639344262295,6.370689655172414,-0.0309496890898817,-0.0025396323480287,-0.0019526278901759,0.0149253731343283,0.2238805970149253,0.208955223880597,23,23,0.911036199774336,0.9250243424973484,0.0139881427230124,"[0.7279640892247867, 0.7300377923187843, 0.7506415654703081, 0.7319948709515884, 0.8433168538053745, 0.8765833385926028, 0.9045282200854416, 0.9122121818066823, 0.9770655922256848, 0.9657090435827778]","[0.7715153664258362, 0.7322895251011071, 0.7261843748634468, 0.7795822438104679, 0.822183099660647, 0.9014912160160334, 0.9557323060427987, 0.9667035802541291, 0.9018737268639699, 0.9365958661150788]","[0.043551277201049454, 0.002251732782322824, -0.024457190606861356, 0.047587372858879484, -0.021133754144727512, 0.02490787742343059, 0.05120408595735704, 0.05449139844744677, -0.07519186536171485, -0.029113177467698925]",23,23
Black_Female_Cashier,0.7333333333333333,0.5,-0.2333333333333332,-0.1388888888888888,6.276923076923077,6.417322834645669,0.1403997577225926,0.0045934997490015,0.0030704222413773,0.0298507462686567,0.0522388059701492,0.0223880597014925,23,23,0.7607225827896439,0.7325491104848917,-0.0281734723047522,"[0.6098037576054474, 0.6390707521879938, 0.6239586233028658, 0.6074301668267778, 0.6275828917134758, 0.590348414279582, 0.615689646211775, 0.49686181184490286, 0.46166277560209124, 0.4931823131430243]","[0.591279560938097, 0.620920111473881, 0.5894710922777167, 0.5681588393653909, 0.5896217417238, 0.562451453363408, 0.5046487611226828, 0.4884805557426901, 0.4597870770343536, 0.33651245388912004]","[-0.01852419666735039, -0.018150640714112765, -0.03448753102514912, -0.03927132746138684, -0.03796114998967581, -0.027896960916173996, -0.11104088508909227, -0.008381256102212742, -0.001875698567737616, -0.15666985925390425]",23,23
Black_Female_Cleaner,0.6111111111111112,0.3571428571428571,-0.253968253968254,-0.1777777777777778,6.722222222222222,6.290322580645161,-0.4318996415770613,0.0059301154856292,0.007484736467391,0.0075187969924812,0.1052631578947368,0.0977443609022556,23,23,0.8060508178674586,0.8062833879023511,0.0002325700348925,"[0.6435982554289704, 0.6518929283846064, 0.6407321380159835, 0.648768005409143, 0.6643826019509209, 0.6612715482068875, 0.652623207115379, 0.6201695495017868, 0.6040214027085155, 0.45355512009626275]","[0.6188119388232726, 0.6310053839152242, 0.651642590658742, 0.6478235923451208, 0.6435023471961412, 0.6541704432943909, 0.5988911496783188, 0.5123013219565482, 0.465562531021693, 0.4733044693433097]","[-0.024786316605697856, -0.020887544469382235, 0.010910452642758472, -0.0009444130640222648, -0.020880254754779726, -0.007101104912496603, -0.05373205743706022, -0.10786822754523862, -0.13845887168682247, 0.019749349247046966]",23,23
Black_Female_Doctor,0.5909090909090909,0.3181818181818182,-0.2727272727272727,-0.037037037037037,6.112903225806452,5.8559322033898304,-0.2569710224166215,0.0195472186333315,0.020426604008572,0.0075187969924812,0.0601503759398496,0.0526315789473684,23,23,0.9620632315594227,0.9403111379840912,-0.0217520935753314,"[0.7586878621148978, 0.7049113574235576, 0.6674610424931026, 0.7275258733084096, 0.8124899558367275, 0.8770441804072335, 0.9096251719366067, 0.9078917187741276, 0.9178981292890164, 0.8292941552739738]","[0.5955953657665909, 0.5838498355231416, 0.6095148343842232, 0.5744802520304093, 0.7046623646162768, 0.7680718437431853, 0.8666749327111205, 0.7840781044156488, 0.7609598245724721, 0.6069985423473649]","[-0.16309249634830691, -0.12106152190041597, -0.057946208108879405, -0.15304562127800025, -0.1078275912204506, -0.10897233666404826, -0.04295023922548624, -0.12381361435847871, -0.15693830471654424, -0.22229561292660882]",23,23
Black_Female_Lawyer,0.5263157894736842,0.48,-0.0463157894736842,-0.2,6.596774193548387,6.25,-0.346774193548387,0.0167809425932169,0.0168505113677366,0.0225563909774436,0.0601503759398496,0.037593984962406,23,23,0.7974884961007815,0.8130317477673381,0.0155432516665565,"[0.5829316780416558, 0.5718830267101048, 0.5164316828727606, 0.5472494088052919, 0.5577489588426122, 0.5707004434108651, 0.6267412578401396, 0.667039625530014, 0.6437279242930902, 0.5853217500282811]","[0.5447574856194366, 0.5474748942679718, 0.5236137834682159, 0.550799255377678, 0.6210593468294876, 0.6659015106633673, 0.6866889880605725, 0.6515929425450464, 0.6197367777633254, 0.4849371174947867]","[-0.0381741924222192, -0.024408132442133024, 0.00718210059545521, 0.003549846572386106, 0.06331038798687538, 0.09520106725250221, 0.05994773022043298, -0.015446682984967541, -0.023991146529764862, -0.10038463253349444]",23,23
